<?xml version="1.0" encoding="UTF-8"?>
<BIF VERSION="0.3"  xmlns="http://www.cs.ubc.ca/labs/lci/fopi/ve/XMLBIFv0_3"
	xmlns:xsi="http://www.w3.org/2001/XMLSchema-instance"
	xsi:schemaLocation="http://www.cs.ubc.ca/labs/lci/fopi/ve/XMLBIFv0_3 http://www.cs.ubc.ca/labs/lci/fopi/ve/XMLBIFv0_3/XMLBIFv0_3.xsd">
<NETWORK>
<NAME>Untitled</NAME>
<PROPERTY>detailed = </PROPERTY>
<PROPERTY>short = </PROPERTY>

<VARIABLE TYPE="nature">
	<NAME>Stuck Any Reason (Alert)</NAME>
	<OUTCOME>True</OUTCOME>
	<OUTCOME>False</OUTCOME>
	<PROPERTY>position = (7519.0009765625, 5425.8994140625)</PROPERTY>
</VARIABLE>

<VARIABLE TYPE="nature">
	<NAME>Is Ship Giant</NAME>
	<OUTCOME>Yes</OUTCOME>
	<OUTCOME>No</OUTCOME>
	<PROPERTY>position = (7108.1708984375, 5184.44970703125)</PROPERTY>
</VARIABLE>

<VARIABLE TYPE="nature">
	<NAME>Weather</NAME>
	<OUTCOME>Bad</OUTCOME>
	<OUTCOME>Good</OUTCOME>
	<PROPERTY>position = (7443.6298828125, 5182.8662109375)</PROPERTY>
</VARIABLE>

<VARIABLE TYPE="nature">
	<NAME>Weather Sensor Status</NAME>
	<OUTCOME>Correct</OUTCOME>
	<OUTCOME>Wrong</OUTCOME>
	<PROPERTY>position = (7277.62353515625, 5184.81494140625)</PROPERTY>
</VARIABLE>

<VARIABLE TYPE="nature">
	<NAME>Tide</NAME>
	<OUTCOME>Low</OUTCOME>
	<OUTCOME>High</OUTCOME>
	<PROPERTY>position = (7615.8828125, 5181.5283203125)</PROPERTY>
</VARIABLE>

<VARIABLE TYPE="nature">
	<NAME>Canal Busy</NAME>
	<OUTCOME>Yes</OUTCOME>
	<OUTCOME>No</OUTCOME>
	<PROPERTY>position = (7787.33837890625, 5179.2431640625)</PROPERTY>
</VARIABLE>

<VARIABLE TYPE="nature">
	<NAME>Radar Sensor Status</NAME>
	<OUTCOME>Correct</OUTCOME>
	<OUTCOME>Wrong</OUTCOME>
	<PROPERTY>position = (7983.51220703125, 5180.32373046875)</PROPERTY>
</VARIABLE>

<VARIABLE TYPE="nature">
	<NAME>Stuck Due To Giant</NAME>
	<OUTCOME>True</OUTCOME>
	<OUTCOME>False</OUTCOME>
	<PROPERTY>position = (7105.4873046875, 5287.47900390625)</PROPERTY>
</VARIABLE>

<VARIABLE TYPE="nature">
	<NAME>Stuck Due To Weather</NAME>
	<OUTCOME>True</OUTCOME>
	<OUTCOME>False</OUTCOME>
	<PROPERTY>position = (7293.3271484375, 5285.8798828125)</PROPERTY>
</VARIABLE>

<VARIABLE TYPE="nature">
	<NAME>Stuck Due To Tide</NAME>
	<OUTCOME>True</OUTCOME>
	<OUTCOME>False</OUTCOME>
	<PROPERTY>position = (7628.314453125, 5284.693359375)</PROPERTY>
</VARIABLE>

<VARIABLE TYPE="nature">
	<NAME>Stuck Due To Canal Busy</NAME>
	<OUTCOME>True</OUTCOME>
	<OUTCOME>False</OUTCOME>
	<PROPERTY>position = (7799.388671875, 5284.56640625)</PROPERTY>
</VARIABLE>

<VARIABLE TYPE="nature">
	<NAME>Is Shopping Season</NAME>
	<OUTCOME>Yes</OUTCOME>
	<OUTCOME>No</OUTCOME>
	<PROPERTY>position = (7796.1416015625, 5094.10107421875)</PROPERTY>
</VARIABLE>

<VARIABLE TYPE="nature">
	<NAME>Traffic Detected</NAME>
	<OUTCOME>High</OUTCOME>
	<OUTCOME>Low</OUTCOME>
	<PROPERTY>position = (7979.447265625, 5283.4599609375)</PROPERTY>
</VARIABLE>

<VARIABLE TYPE="nature">
	<NAME>Stuck Due To Flooding</NAME>
	<OUTCOME>True</OUTCOME>
	<OUTCOME>False</OUTCOME>
	<PROPERTY>position = (7462.529296875, 5285.78515625)</PROPERTY>
</VARIABLE>

<VARIABLE TYPE="nature">
	<NAME>War</NAME>
	<OUTCOME>Yes</OUTCOME>
	<OUTCOME>No</OUTCOME>
	<PROPERTY>position = (7108.98291015625, 5419.19677734375)</PROPERTY>
</VARIABLE>

<VARIABLE TYPE="nature">
	<NAME>Stuck Due To War</NAME>
	<OUTCOME>True</OUTCOME>
	<OUTCOME>False</OUTCOME>
	<PROPERTY>position = (7301.4697265625, 5421.09716796875)</PROPERTY>
</VARIABLE>

<DEFINITION>
	<FOR>Stuck Any Reason (Alert)</FOR>
	<GIVEN>Stuck Due To Giant</GIVEN>
	<GIVEN>Stuck Due To Weather</GIVEN>
	<GIVEN>Stuck Due To Tide</GIVEN>
	<GIVEN>Stuck Due To Canal Busy</GIVEN>
	<GIVEN>Stuck Due To Flooding</GIVEN>
	<GIVEN>Stuck Due To War</GIVEN>
	<TABLE>1.0 0.0 1.0 0.0 1.0 0.0 1.0 0.0 1.0 0.0 1.0 0.0 1.0 0.0 1.0 0.0 1.0 0.0 1.0 0.0 1.0 0.0 1.0 0.0 1.0 0.0 1.0 0.0 1.0 0.0 1.0 0.0 1.0 0.0 1.0 0.0 1.0 0.0 1.0 0.0 1.0 0.0 1.0 0.0 1.0 0.0 1.0 0.0 1.0 0.0 1.0 0.0 1.0 0.0 1.0 0.0 1.0 0.0 1.0 0.0 1.0 0.0 1.0 0.0 1.0 0.0 1.0 0.0 1.0 0.0 1.0 0.0 1.0 0.0 1.0 0.0 1.0 0.0 1.0 0.0 1.0 0.0 1.0 0.0 1.0 0.0 1.0 0.0 1.0 0.0 1.0 0.0 1.0 0.0 1.0 0.0 1.0 0.0 1.0 0.0 1.0 0.0 1.0 0.0 1.0 0.0 1.0 0.0 1.0 0.0 1.0 0.0 1.0 0.0 1.0 0.0 1.0 0.0 1.0 0.0 1.0 0.0 1.0 0.0 1.0 0.0 0.001 0.999</TABLE>
</DEFINITION>

<DEFINITION>
	<FOR>Is Ship Giant</FOR>
	<TABLE>0.75 0.25</TABLE>
</DEFINITION>

<DEFINITION>
	<FOR>Weather</FOR>
	<TABLE>0.5 0.5</TABLE>
</DEFINITION>

<DEFINITION>
	<FOR>Weather Sensor Status</FOR>
	<TABLE>0.99 0.01</TABLE>
</DEFINITION>

<DEFINITION>
	<FOR>Tide</FOR>
	<TABLE>0.25 0.75</TABLE>
</DEFINITION>

<DEFINITION>
	<FOR>Canal Busy</FOR>
	<GIVEN>Is Shopping Season</GIVEN>
	<TABLE>0.9 0.1 0.7 0.3</TABLE>
</DEFINITION>

<DEFINITION>
	<FOR>Radar Sensor Status</FOR>
	<TABLE>0.9 0.1</TABLE>
</DEFINITION>

<DEFINITION>
	<FOR>Stuck Due To Giant</FOR>
	<GIVEN>Is Ship Giant</GIVEN>
	<TABLE>0.005 0.995 0.0 1.0</TABLE>
</DEFINITION>

<DEFINITION>
	<FOR>Stuck Due To Weather</FOR>
	<GIVEN>Weather</GIVEN>
	<GIVEN>Weather Sensor Status</GIVEN>
	<TABLE>0.007 0.993 0.01 0.99 0.004 0.996 0.002 0.998</TABLE>
</DEFINITION>

<DEFINITION>
	<FOR>Stuck Due To Tide</FOR>
	<GIVEN>Tide</GIVEN>
	<TABLE>0.01 0.99 0.001 0.999</TABLE>
</DEFINITION>

<DEFINITION>
	<FOR>Stuck Due To Canal Busy</FOR>
	<GIVEN>Canal Busy</GIVEN>
	<TABLE>0.01 0.99 0.0 1.0</TABLE>
</DEFINITION>

<DEFINITION>
	<FOR>Is Shopping Season</FOR>
	<TABLE>0.2 0.8</TABLE>
</DEFINITION>

<DEFINITION>
	<FOR>Traffic Detected</FOR>
	<GIVEN>Canal Busy</GIVEN>
	<GIVEN>Radar Sensor Status</GIVEN>
	<TABLE>1.0 0.0 0.5 0.5 0.0 1.0 0.5 0.5</TABLE>
</DEFINITION>

<DEFINITION>
	<FOR>Stuck Due To Flooding</FOR>
	<GIVEN>Weather</GIVEN>
	<GIVEN>Tide</GIVEN>
	<TABLE>5.0E-4 0.9995 0.005 0.995 1.0E-4 0.9999 0.001 0.999</TABLE>
</DEFINITION>

<DEFINITION>
	<FOR>War</FOR>
	<TABLE>0.001 0.999</TABLE>
</DEFINITION>

<DEFINITION>
	<FOR>Stuck Due To War</FOR>
	<GIVEN>War</GIVEN>
	<TABLE>0.7 0.3 0.0 1.0</TABLE>
</DEFINITION>
</NETWORK>
</BIF>
