<?xml version="1.0" encoding="UTF-8"?>
<BIF VERSION="0.3"  xmlns="http://www.cs.ubc.ca/labs/lci/fopi/ve/XMLBIFv0_3"
	xmlns:xsi="http://www.w3.org/2001/XMLSchema-instance"
	xsi:schemaLocation="http://www.cs.ubc.ca/labs/lci/fopi/ve/XMLBIFv0_3 http://www.cs.ubc.ca/labs/lci/fopi/ve/XMLBIFv0_3/XMLBIFv0_3.xsd">
<NETWORK>
<NAME>Simple Diagnostic Example</NAME>
<PROPERTY>detailed = This is example 6.14, shown in Figure 6.3 of Poole and Mackworth, Artificial Intelligence: foundations of computational agents. Copyright Poole and Mackworth, 2009. This may be used under a Creative Commons Attribution-Noncommercial-Share Alike 2.5 Canada License http://creativecommons.org/licenses/by-nc-sa/2.5/ca/</PROPERTY>
<PROPERTY>short = Influenza and Smoking Example of Poole and Mackworth, Artificial Intelligence.</PROPERTY>

<VARIABLE TYPE="nature">
	<NAME>Winter</NAME>
	<OUTCOME>T</OUTCOME>
	<OUTCOME>F</OUTCOME>
	<PROPERTY>position = (7469.37060546875, 5046.51220703125)</PROPERTY>
</VARIABLE>

<VARIABLE TYPE="nature">
	<NAME>WindowsFrosty</NAME>
	<OUTCOME>T</OUTCOME>
	<OUTCOME>F</OUTCOME>
	<PROPERTY>position = (7174.63818359375, 5191.1328125)</PROPERTY>
</VARIABLE>

<VARIABLE TYPE="nature">
	<NAME>RoadIcy</NAME>
	<OUTCOME>T</OUTCOME>
	<OUTCOME>F</OUTCOME>
	<PROPERTY>position = (7425.43603515625, 5203.94775390625)</PROPERTY>
</VARIABLE>

<VARIABLE TYPE="nature">
	<NAME>BatteryDead</NAME>
	<OUTCOME>T</OUTCOME>
	<OUTCOME>F</OUTCOME>
	<PROPERTY>position = (7657.92724609375, 5209.43896484375)</PROPERTY>
</VARIABLE>

<VARIABLE TYPE="nature">
	<NAME>RadioBroken</NAME>
	<OUTCOME>T</OUTCOME>
	<OUTCOME>F</OUTCOME>
	<PROPERTY>position = (7815.36181640625, 5403.48779296875)</PROPERTY>
</VARIABLE>

<VARIABLE TYPE="nature">
	<NAME>CarNotDriven</NAME>
	<OUTCOME>T</OUTCOME>
	<OUTCOME>F</OUTCOME>
	<PROPERTY>position = (7811.70068359375, 5046.51220703125)</PROPERTY>
</VARIABLE>

<VARIABLE TYPE="nature">
	<NAME>NotStarting</NAME>
	<OUTCOME>T</OUTCOME>
	<OUTCOME>F</OUTCOME>
	<PROPERTY>position = (7540.76611328125, 5399.82666015625)</PROPERTY>
</VARIABLE>

<DEFINITION>
	<FOR>Winter</FOR>
	<TABLE>0.05 0.95</TABLE>
</DEFINITION>

<DEFINITION>
	<FOR>WindowsFrosty</FOR>
	<GIVEN>Winter</GIVEN>
	<TABLE>0.3 0.7 0.001 0.999</TABLE>
</DEFINITION>

<DEFINITION>
	<FOR>RoadIcy</FOR>
	<GIVEN>Winter</GIVEN>
	<TABLE>0.9 0.1 0.05 0.95</TABLE>
</DEFINITION>

<DEFINITION>
	<FOR>BatteryDead</FOR>
	<GIVEN>Winter</GIVEN>
	<GIVEN>CarNotDriven</GIVEN>
	<TABLE>0.99 0.01 0.9 0.1 0.7 0.3 1.0E-4 0.9999</TABLE>
</DEFINITION>

<DEFINITION>
	<FOR>RadioBroken</FOR>
	<GIVEN>BatteryDead</GIVEN>
	<TABLE>0.6 0.4 0.001 0.999</TABLE>
</DEFINITION>

<DEFINITION>
	<FOR>CarNotDriven</FOR>
	<TABLE>0.2 0.8</TABLE>
</DEFINITION>

<DEFINITION>
	<FOR>NotStarting</FOR>
	<GIVEN>BatteryDead</GIVEN>
	<TABLE>0.8 0.2 0.07 0.93</TABLE>
</DEFINITION>
</NETWORK>
</BIF>
